42 -39 -48 17
6 -20 21 -29
39 9 17 -15
-16 24 -44 43
27 4 -44 49
-46 7 -4 8
33 -2 6 24
21 24 -42 48
-54 8 34 41
-1 -16 11 13
-16 7 42 -32
-31 13 9 34
44 11 -32 -50
37 13 -22 8
45 -10 21 -51
-16 -14 17 -15
31 -8 4 23
46 -53 6 19
34 29 -37 15
-11 -44 8 -25
25 31 -31 -21
-42 31 29 43
6 38 -44 -19
41 -28 -2 6
-30 23 21 35
-32 -29 16 -3
-31 8 -26 -33
21 -48 7 33
20 20 -4 -8
-15 -1 34 -30
-31 -7 16 16
37 41 -52 34
16 15 -43 52
-10 18 -55 -5
-3 35 -22 23
-20 -29 17 21
-35 32 -3 -26
7 5 -2 10
-38 -42 38 -29
-22 0 13 1
2 35 -49 -28
-24 0 19 27
19 5 -28 -41
32 -32 21 27
-2 38 -37 -40
10 45 4 -28
-32 34 -45 -34
27 41 17 -24
-39 -36 14 5
3 -20 32 18
22 12 -58 25
45 -19 13 -14
14 3 -29 -36
4 -36 -47 7
45 -45 -1 30
-10 17 44 -33
14 27 -41 -55
0 19 29 29
-13 -1 19 29
8 -18 7 -38
22 -21 -27 -41
-42 -14 22 -14
-22 -2 -47 36
20 -16 -48 4
-39 -11 16 15
16 27 -21 -22
3 -50 25 36
28 -26 31 -29
0 -36 23 -17
45 -39 -31 2
13 -41 -6 43
-52 -11 23 13
17 -14 -35 -3
14 -40 38 27
-42 -4 29 31
36 22 -42 13
17 6 35 9
-42 -47 40 7
-30 -50 20 11
13 -2 -30 -36
17 18 -76 14
-40 -8 2 -4
33 -4 30 -37
-10 -20 6 23
18 34 -38 -31
-36 4 -25 3
4 -45 -5 9
-32 10 36 -41
-37 -45 -10 -8
20 -20 26 36
40 -10 -51 -26
27 10 -12 -36
11 34 30 22
-46 14 -16 33
-4 -30 -48 -5
43 -30 -68 19
-8 4 18 -40
35 -22 -26 15
-18 10 -43 5
-9 23 -9 15
-2 -21 -63 -21
37 -20 -48 50
-31 42 -5 0
12 24 9 -29
23 38 -39 -59
16 42 20 28
10 41 12 -49
-16 -46 43 -33
11 13 14 37
27 1 -28 -22
-20 -3 21 -14
38 10 -63 51
-38 20 -16 -37
-4 -27 24 22
-4 -36 -30 16
29 -6 -18 -38
-24 2 3 45
35 -5 -60 30
-19 -12 6 -9
-29 31 10 -3
19 -6 -50 -29
36 31 -49 -35
-33 -22 -7 -12
10 -10 45 -44
-39 19 -2 32
11 2 -48 26
-23 -25 27 -25
-4 -36 -6 28
34 -23 22 28
-4 21 -34 -28
0 -33 35 -16
5 -38 6 -29
-46 13 13 32
-30 18 7 14
5 10 -9 -29
2 23 -26 -27
9 -27 10 -16
-22 -27 37 5
32 18 17 -44
-35 -49 -3 -31
12 23 -75 60
1 37 -43 -50
13 7 -32 37
-30 14 10 17
-29 -6 -5 42
32 34 3 -33
19 -23 -18 45
-13 26 -54 8
-24 -31 42 15
43 -48 30 24
-7 -22 40 -18
-10 -14 -39 47
-1 25 -2 -14
-36 28 -20 1
-7 42 31 -62
39 -10 31 32
0 33 -21 -11
46 -13 38 22
40 -34 -45 29
41 -19 5 -2
19 -24 -14 38
-12 6 42 15
-21 26 -34 34
46 3 -23 39
-41 36 11 -13
-30 41 11 16
19 34 -27 -15
-46 -39 -5 14
42 23 19 -33
-45 -20 1 -3
3 1 -39 16
-39 -27 -15 1
-23 -22 -3 18
-1 31 35 25
-12 33 -19 36
14 7 10 -12
-43 10 -12 -12
20 33 -29 -24
-38 -24 -21 20
36 19 -19 -3
-23 -36 -16 23
24 5 -23 -52
-7 2 3 -46
-28 40 32 32
-4 -21 -45 21
14 -32 -8 -33
22 21 16 -45
0 24 -8 -23
-17 -34 -9 14
0 17 29 -19
34 -22 -39 -15
32 -37 -22 18
-27 19 -7 -60
-14 -49 -7 -34
33 -31 -25 42
-38 40 -8 -3
-15 -43 32 -18
-4 -32 42 18
-44 20 31 39
42 -16 1 -48
-31 -28 15 -27
-30 0 24 -18
-40 26 -1 -9
-42 32 -1 31
-17 13 39 -5
-35 15 -22 8
-22 35 -17 17
13 7 41 -54
4 -36 20 -25
29 -12 -47 27
-12 -17 7 -46
-39 31 1 32
-28 -52 21 28
39 -34 -53 36
-32 11 -37 -27
6 33 39 -43
-11 -4 -10 -18
-2 39 -49 39
-4 24 -45 50
36 37 -8 -18
37 -4 -42 52
28 -33 10 -36
32 20 -30 -39
-38 -39 -6 -32
21 29 -69 34
44 12 -29 -55
-3 35 -27 -53
44 24 -50 -48
-17 2 39 2
-41 -29 -1 27
-19 38 -21 -15
7 41 6 6
42 30 33 -49
18 -1 -50 40
-5 -19 -61 -2
-18 -6 -37 7
-31 -33 6 -17
-4 37 -14 -17
15 -44 31 -21
-15 -26 -49 31
-35 40 20 26
6 23 28 -48
19 20 -32 -32
-12 14 7 24
-15 33 -18 -14
34 -19 -44 -9
-3 -50 33 42
-28 30 -25 2
-16 -48 -15 22
44 -16 -1 0
10 -20 29 20
-2 42 4 -29
-1 -5 -6 46
24 17 41 -8
18 -15 -9 -34
35 32 -36 -41
