(1, 3, 3, 8, 1)
-36 -29 52
17 -36 11
-13 -43 46

63 -59 -55
-76 68 -9
-13 -36 -23

-22 -30 53
-54 31 17
-4 62 -41

46 29 -58
-10 15 69
31 8 73

10 49 -66
-70 0 -21
50 51 -59

18 -2 41
-34 -45 -15
11 37 11

-41 34 -2
-54 63 67
48 -52 -29

-45 58 20
-60 -29 16
-21 -53 -59


(1, 3, 3, 16, 1)
-58 52 11
0 -44 -1
23 32 48

-35 -39 -23
-19 -54 15
24 -18 13

-30 -36 -26
-18 -2 46
-8 9 3

14 -33 6
-56 -54 11
10 44 -31

-47 21 47
-21 -15 54
-52 31 -9

8 31 14
-24 57 -7
-13 -8 -22

-38 11 -49
-1 40 -25
-45 -8 17

-3 -28 -34
19 58 27
27 -36 -38

24 16 -44
28 30 -1
-15 27 -34

-28 -39 -70
-22 25 -33
14 -7 28

-49 39 -19
10 39 0
29 -29 -21

7 -1 -24
30 -35 35
-35 -3 -31

3 -30 -16
31 -41 -21
-3 21 17

25 -15 -33
56 -25 -26
33 -4 4

27 10 -7
30 48 -14
-29 -57 -30

-2 -14 18
48 -39 15
2 -15 54


(1, 3, 3, 32, 1)
11 -22 9
-17 35 4
-14 44 17

27 -20 27
-2 35 -7
33 -11 12

27 30 -4
-4 20 -25
11 -14 -31

14 6 -14
-35 -6 -10
25 -10 -14

31 -24 27
22 20 -14
-34 13 -31

33 -25 -29
-31 9 20
6 43 36

6 10 32
-24 -29 -9
-22 27 -11

7 -20 27
8 50 2
21 35 -6

-17 -15 34
-17 -20 -33
11 45 -33

-24 -13 -16
-5 29 19
26 -25 44

-9 -20 -25
7 31 24
-12 -28 34

3 36 -15
-35 -10 22
-14 -13 28

26 17 -10
-24 -44 -26
-5 -11 -14

14 -10 -28
25 24 -48
7 16 -24

-16 -3 22
-2 5 -14
-29 25 22

8 0 -16
-22 1 12
11 -38 -23

3 32 1
39 0 -9
-30 -33 7

18 -38 3
-13 -4 -26
-32 23 -22

34 -38 41
10 18 -34
-12 29 20

-4 -26 -14
2 0 43
-31 30 -6

-18 -22 -40
-12 23 32
-12 -5 -13

-4 13 49
-9 3 19
13 5 18

26 38 -13
31 -34 23
-2 -10 -7

-30 -28 -1
21 36 14
-3 20 -34

24 8 12
-11 9 32
-6 34 -12

-19 -9 -19
-4 -12 -22
-14 -7 39

21 -28 -6
-33 33 28
-14 -25 -30

7 25 2
-5 -21 -21
21 -26 -14

-29 -13 -18
13 -24 4
11 28 28

-2 -19 31
4 -4 43
2 -21 1

-29 -22 -26
13 37 39
-15 17 16

30 -20 5
29 -4 5
-42 2 -12


(1, 3, 3, 32, 1)
29 18 23
-37 -10 7
-33 -27 29

-21 -33 6
9 -6 -49
-12 24 13

-27 6 -22
13 17 -32
34 -24 31

-26 -30 -12
40 48 -1
-24 -12 9

-20 -1 22
42 23 -5
44 -7 -3

0 -28 -30
14 -18 -12
25 -1 -23

12 -38 0
-43 7 -42
-18 -9 -23

-40 13 40
0 14 30
-25 -21 28

-9 36 3
-9 38 46
4 17 3

-9 -33 -4
-13 2 13
-9 -54 2

22 29 -13
28 22 -12
-16 -35 -8

-23 -23 -8
-10 -33 14
-36 30 -16

-6 -33 -22
-20 27 15
-36 19 5

-7 -13 -8
43 -6 -8
5 -19 -11

7 12 18
-4 -29 21
-16 5 30

-1 -22 14
-41 -3 23
-9 8 -18

9 20 -18
20 -31 -18
29 -19 3

-3 -3 2
-19 48 14
-31 26 25

-8 45 21
33 -28 42
-1 24 -23

24 23 -10
0 -11 37
39 -25 -9

31 37 33
14 18 -15
28 -23 14

27 -2 36
-4 -24 1
-29 -36 23

11 50 29
23 1 13
34 4 6

1 4 -20
-23 -30 0
30 10 46

-13 5 8
24 25 0
35 14 -25

-38 -26 7
-15 0 -32
30 4 19

23 30 40
-16 -28 21
14 -7 -3

2 -22 -19
-7 -25 34
-19 12 -3

-51 -34 -2
11 13 -33
-20 1 -6

29 9 -13
30 23 -13
8 12 -17

29 -22 32
-37 24 -36
-4 19 -5

-29 -14 -16
-25 25 -8
-38 24 27


(1, 3, 3, 64, 1)
-2 26 -32
-5 1 4
16 -4 6

-22 -9 16
-4 -7 28
-30 12 -26

35 25 3
8 -1 13
37 20 -11

-15 19 7
-18 20 19
-32 -26 -2

15 -19 -23
19 0 -11
16 3 -20

-18 1 -19
18 -32 -16
12 -20 -29

10 1 21
28 17 -10
-14 1 -27

27 -17 -14
16 -27 -11
-15 -20 -30

0 -3 0
-13 -36 -9
-35 16 10

-6 19 26
14 -6 -7
9 -28 12

-20 16 17
16 33 -6
-6 -19 27

37 -9 26
-19 -4 8
-21 -9 -13

24 -22 -15
9 3 31
6 15 0

15 -12 -36
-26 -35 -16
-17 -8 -2

-19 -41 -26
-9 -24 -4
15 -11 -21

6 -26 4
0 29 31
-8 -25 7

-15 -4 -25
24 -21 -5
30 25 -2

12 -26 -16
-4 16 -26
-21 22 -11

-25 -10 2
0 13 10
-20 4 32

-12 -9 -36
1 -30 -29
-12 1 1

19 8 21
9 34 3
11 17 25

-5 -17 -17
-24 -7 -9
-15 -14 -15

-15 34 -7
21 19 8
23 -16 -19

1 -30 -7
19 -14 -2
18 -2 4

-10 -9 -29
-3 16 -17
30 33 -9

-3 -18 15
-23 -2 -36
-23 -10 -1

-11 -16 2
-5 8 -9
-2 6 44

-2 17 29
16 18 28
14 12 8

-32 -12 10
13 -30 10
-29 -19 -24

4 -14 -21
-2 -4 -7
-37 18 -22

-8 25 -7
-2 0 33
30 -18 8

-29 13 -9
-19 10 10
16 7 -15

-21 0 -23
-9 -4 -13
8 -16 15

5 18 19
-17 34 -5
0 -5 -25

-18 -23 4
17 -15 21
25 15 -9

-29 10 -21
-13 -2 0
-28 3 21

-11 15 11
14 5 28
26 -8 -24

-21 11 19
27 -4 -3
-21 21 -19

-32 4 13
11 2 -12
-34 7 -21

-25 0 -37
-24 -20 -22
-16 24 -4

3 -19 -25
-7 -4 37
3 26 31

13 9 28
19 -5 9
-18 -23 -7

14 3 -10
-16 1 -17
48 11 -2

7 -13 0
5 -15 -9
4 -35 -37

12 -24 -31
-30 18 -5
-11 -26 -33

-6 -29 -17
27 16 -1
8 8 11

31 -19 13
19 -21 4
-4 -18 33

11 17 -28
44 11 -15
19 1 -20

-13 -23 25
-15 25 12
-15 -2 -30

-19 12 -28
3 18 -18
34 8 -17

24 17 17
-11 28 2
-7 -2 -23

20 25 6
21 -4 -22
5 -9 -23

19 28 -10
-24 3 -23
-30 9 -10

-17 10 1
-6 32 1
21 12 17

-16 -11 -19
19 -21 -39
-9 -18 6

-11 -10 -11
37 31 14
16 9 -16

-28 -20 -4
-7 14 22
-14 -27 -23

2 -27 -2
-1 23 28
17 -16 -9

34 2 -25
-5 -16 -11
3 -8 -17

-18 23 -5
15 25 23
25 -9 12

-10 -21 10
-30 -13 27
17 -21 6

-7 0 17
26 10 10
36 12 -9

-27 -33 -22
-13 1 -13
13 0 14

7 -2 -20
-12 11 30
21 -19 -26


(1, 3, 3, 64, 1)
2 5 -3
11 18 -28
18 17 -12

-7 -7 -31
-9 -24 6
-3 14 -31

15 18 -23
17 -10 -18
28 11 10

-8 4 30
11 -21 38
-17 10 19

17 -9 -15
3 17 8
45 31 2

7 28 11
33 -15 -22
-9 -3 -7

17 23 31
22 33 9
-11 9 -1

-13 -14 -20
-13 1 14
-14 13 37

5 0 11
32 24 9
-3 37 30

22 -15 23
18 19 39
14 16 11

14 10 1
-3 1 32
-22 -27 -2

-26 -26 -32
3 -3 -18
-26 -19 -16

35 12 -12
25 13 -4
11 -9 -22

17 6 14
11 10 -3
15 -4 16

-13 -17 -26
-1 16 23
12 16 43

33 -2 -9
-16 -8 -17
-7 7 -16

-22 -9 18
33 -11 6
-22 -8 32

18 -24 -3
33 -3 0
26 37 -2

38 10 17
13 -3 -7
3 26 17

-1 10 -31
-30 -13 -30
-8 13 16

8 2 3
-9 19 29
-28 17 22

-29 1 -11
-4 -17 7
18 -20 10

-13 -19 25
21 -23 -16
-9 14 12

3 -17 -22
-19 5 28
17 13 -17

-30 25 -11
6 20 25
19 -2 -30

-21 -19 -20
-16 7 2
18 11 0

2 -13 1
-38 -11 -24
-17 -21 -21

-16 14 -33
25 -2 17
-6 9 -4

-2 29 30
26 7 1
-14 -8 3

0 21 -9
-3 13 -28
21 18 -21

28 20 17
2 11 -7
21 4 -26

-25 13 -14
-2 -30 9
-20 -7 -18

24 -16 -4
12 -6 21
4 4 -27

-2 15 3
-4 32 19
31 11 26

-4 13 22
-5 -23 12
-14 24 19

-27 12 -13
-33 -12 22
7 -16 -11

23 8 -16
-26 -12 10
2 -14 0

-7 -3 -20
-14 -19 -23
-19 -20 -20

1 8 -1
-1 -13 -7
-4 3 38

14 -8 -17
16 -22 -20
4 -33 -22

-20 -3 19
-17 -26 -16
-15 5 30

-33 -20 -2
-3 -17 -4
13 16 6

33 19 -8
17 -7 -12
-15 4 -15

-13 -20 -2
-21 -38 13
-29 -17 5

5 -3 10
23 1 37
6 21 4

-32 -16 25
-5 4 22
2 -18 19

26 -2 -7
-1 -7 -2
-4 -16 1

26 32 -12
-17 -9 7
-27 -2 17

-1 8 -14
-10 19 -29
13 7 2

22 1 -5
-12 -8 0
-26 -21 -27

-11 1 17
7 6 -8
43 35 -6

7 29 -3
35 14 0
-7 -11 -12

-10 17 29
16 -7 14
19 15 24

13 -22 -9
9 -9 -34
28 -8 -10

-38 6 6
-14 14 -1
-20 -28 4

19 -14 -25
17 3 -7
-28 -7 -16

-20 -12 29
-10 -7 27
6 5 36

12 8 0
5 19 -2
35 6 -25

10 8 7
-16 23 35
1 20 11

-9 26 -18
31 -7 21
19 -14 25

20 26 8
0 9 -21
19 1 -15

-27 -2 -25
-18 -6 -30
-9 3 3

9 -10 13
43 28 -6
17 7 -18

-13 -2 -16
-12 -27 -17
-3 2 -27


(1, 3, 3, 128, 1)
-3 -19 -24
-8 -13 14
3 14 16

15 -12 8
11 -8 -16
-11 -8 -23

32 19 3
-4 6 -19
0 -11 -19

-22 -7 -20
-29 -4 -2
10 -14 -22

-13 -9 -11
-14 -14 -16
6 -6 -6

13 12 17
3 -18 10
-18 -16 -17

-7 -10 -14
3 -13 2
19 12 22

5 -16 -2
6 0 -30
1 -27 -1

-6 23 3
5 27 7
-2 23 -17

-3 36 22
-8 18 12
8 -3 17

26 11 -16
5 -3 -14
4 -9 -8

8 17 14
9 2 -4
10 -9 -8

23 1 10
-2 14 -13
28 1 20

4 1 -5
3 15 18
3 13 16

-16 6 5
-9 2 19
-14 -11 -18

2 21 12
-22 10 -4
-4 -17 -27

-14 8 0
3 18 -15
-16 13 -12

8 -18 16
-18 -11 4
-5 -6 25

6 8 15
6 -20 -5
-21 4 -18

9 -6 15
6 22 1
17 -5 19

24 3 3
20 -4 -6
17 -7 -11

-5 16 2
8 0 13
-18 -1 -6

-23 6 -9
-15 -27 2
-11 -1 0

0 -1 28
-11 -10 19
-9 4 4

-16 1 15
-14 13 -9
-29 -11 9

-9 11 5
-3 -2 -6
-30 -25 -23

-11 -2 -10
13 0 -18
13 9 -23

-16 11 -9
-16 20 26
-11 0 10

-1 -9 -7
-29 -15 -27
-2 -2 -5

-3 24 3
18 15 -4
3 -1 3

-14 -24 10
-2 -22 1
25 9 17

3 -7 -16
-3 -14 1
14 -24 -17

-3 5 -9
-23 -7 -10
-8 -29 -5

-27 7 1
-20 -22 3
-9 -10 -20

-22 -5 -5
13 -4 12
-5 -23 -6

-19 4 24
-11 13 16
-10 -2 -4

-23 -10 -9
12 -2 0
14 16 23

32 2 18
14 -13 -14
-9 -2 -15

8 -14 12
21 26 19
17 18 7

2 8 -13
22 -17 26
-7 -7 -17

0 7 23
-6 20 15
-12 0 4

11 10 -4
-2 7 0
11 13 26

2 21 20
-12 -13 -1
2 -12 -17

19 23 12
8 26 3
7 12 15

-3 -2 23
5 -8 16
-10 7 36

0 -15 -22
-19 -24 -14
-9 2 10

7 1 29
-10 -7 12
-13 15 34

-7 9 13
-24 -17 24
-21 3 19

-1 2 0
34 10 18
6 5 1

20 -10 -10
10 12 -10
-7 -1 -26

-7 -4 -21
-22 13 -20
2 0 -9

-7 -16 -22
10 18 9
10 28 8

12 6 9
8 -1 6
22 22 16

-20 -10 1
6 -23 -17
2 22 -6

15 -1 4
-22 -5 12
-16 -9 14

-21 -7 19
-5 15 -17
4 2 4

-13 -24 -17
8 -11 -11
23 2 3

2 4 6
-20 -29 -12
-11 -19 -13

1 11 -2
-2 8 11
29 24 24

-7 -13 -11
-4 -12 -4
20 -14 -16

-4 16 -21
3 13 2
-15 21 16

-27 -1 -10
-12 -30 -8
-4 12 -11

12 -1 11
14 -2 -9
-5 -9 -23

16 6 -3
8 -2 6
24 17 -4

19 0 29
6 11 -3
-4 4 12

16 -23 10
-15 0 14
-24 -10 12

-1 -24 2
-20 -23 -15
-1 -4 5

-26 -20 -11
14 -1 -7
17 16 -10

18 20 14
-2 -2 -8
-20 -17 -17

10 -21 -8
-20 -16 -18
1 -19 -1

-9 -3 16
-14 3 19
4 20 9

-23 -6 -23
-1 2 -12
21 22 3

-10 5 -6
-4 37 16
1 12 6

-11 -17 7
-10 -2 -4
-7 -18 -9

-1 -3 -7
3 7 21
25 25 2

-11 12 18
13 11 -19
-4 -19 6

9 -6 3
4 -12 12
4 -1 -24

24 12 -7
22 11 -2
-4 10 -3

7 -8 11
-4 13 19
7 18 15

4 12 -9
17 12 5
8 23 1

24 -4 -10
5 -16 -7
-5 2 -31

8 13 10
26 21 9
6 18 -5

14 21 13
-4 -15 9
-23 -22 -20

14 8 9
16 8 20
8 5 5

15 -28 -14
13 2 10
16 4 -12

-22 10 -7
2 -22 4
-5 20 -16

2 -13 -15
-6 8 -3
26 -3 19

-19 -12 14
-11 10 -1
-7 -5 27

-5 20 20
14 1 -20
-3 -11 -10

26 11 24
10 17 1
14 -3 10

-3 -22 9
-7 -16 7
-9 4 -24

20 -4 -7
23 -8 -19
8 10 14

4 -11 -11
14 22 -9
17 -5 -9

-26 -14 0
-12 9 19
-14 4 15

-9 0 -15
13 22 -19
-1 20 -1

4 -13 12
16 -3 12
17 -9 6

35 4 31
-8 13 -6
10 3 15

3 24 9
13 -17 10
8 -17 0

-7 9 22
-5 -3 -21
0 1 -13

-12 6 -5
-26 -23 -21
-37 -12 -11

-12 6 -19
-15 -11 -17
-1 -6 -12

-9 3 2
-26 10 10
-19 12 10

-6 11 3
17 10 25
4 -13 19

-13 -12 -15
-6 -16 2
20 19 17

33 -15 28
3 7 -1
8 0 -16

-15 -9 18
5 -6 22
0 10 17

13 8 8
-4 7 0
8 9 28

-28 -12 -8
9 3 -6
-15 -20 -9

-15 -4 -4
-15 1 0
6 0 28

2 -26 13
-1 -17 8
-6 -36 -16

18 -9 -25
-4 -2 -31
9 -2 -1

-14 -2 -24
-6 13 20
-3 10 14

-17 -16 11
-15 4 6
-18 3 18

-11 12 -4
10 31 22
-15 2 6

-6 -15 -16
-4 0 -3
-21 -20 -1

10 7 -2
14 4 23
10 -14 13

-6 -20 6
5 -18 -20
-16 -22 -11

2 4 14
1 6 3
5 18 8

-7 -5 -11
-12 10 -16
-2 -22 -5

-6 -20 -9
-13 -5 9
-1 -25 -12

-2 22 -8
-16 4 25
2 15 5

-17 4 1
-3 20 -3
-16 -6 19

-17 20 -17
4 -18 1
3 5 0

22 -2 -12
9 -6 -16
9 16 8

-15 -3 0
-11 -2 17
3 -4 20

4 -11 -38
4 -6 3
-20 -5 -16

25 -6 9
18 -7 -19
-7 6 -17

-23 -5 1
4 18 -7
-29 14 -9


(1, 3, 3, 256, 1)
-4 -11 -8
-12 -10 -10
-14 -3 -12

19 6 -10
18 -8 -5
8 -16 -17

12 13 -5
-3 -9 10
-7 4 -6

5 12 1
3 -13 9
-20 -5 -16

12 2 4
-8 5 8
4 9 -8

6 -23 -6
-4 -10 -6
-4 2 -1

-4 5 1
-7 -10 -8
-5 7 2

-17 2 -20
1 2 3
1 2 -2

3 0 -6
4 3 -19
1 3 -2

-13 -17 -8
-12 -14 -13
-9 -16 -15

-8 13 2
-7 -2 -2
-4 6 -3

3 -2 12
-12 -4 16
4 18 5

12 -15 -10
-11 9 13
-11 7 -8

14 11 -2
18 9 -13
-4 -18 -15

13 12 13
7 12 8
13 8 10

9 12 -1
17 14 9
6 10 7

-10 -9 -11
12 12 4
-17 -9 1

0 5 5
-11 1 2
-1 -17 7

-12 19 -11
-13 -12 -14
13 11 14

-12 -12 -7
-11 1 10
-1 13 13

-10 10 -6
-8 -6 -9
14 15 17

14 12 13
-6 -5 11
-15 -12 -15

-9 -15 -9
-17 1 -16
-7 -7 -12

-10 10 -2
-5 0 12
-5 1 9

5 -13 4
5 -16 6
8 -2 4

-11 -11 -7
-7 -1 -10
-14 -7 -11

4 10 -3
17 3 12
2 9 13

3 9 2
15 19 10
15 13 3

-11 -13 -18
-5 -2 -11
15 18 8

0 -7 -10
0 -1 -19
2 4 -2

10 15 7
13 7 7
11 14 6

0 9 7
14 14 4
4 10 -2

9 6 -14
4 -4 7
2 -4 1

-18 -19 -11
11 10 1
9 13 2

0 2 -11
-5 -19 -3
6 1 8

-13 -9 -8
-10 -7 -8
-12 -11 -4

-12 11 -8
-13 10 14
-14 -2 -12

8 -16 0
5 -10 -9
14 -8 7

-5 14 20
-1 12 15
-3 5 18

9 9 -2
-5 -13 -4
-15 1 -10

14 15 17
-12 12 11
-13 -14 -14

4 -9 -23
5 -7 -6
-1 -11 -12

-10 2 -12
2 4 -18
15 11 -15

-14 18 8
9 7 -15
-8 -13 1

-12 -14 -12
-12 -12 -14
-14 -11 -10

-12 -12 -7
3 -3 11
1 -8 -12

-21 -2 3
-21 1 10
7 10 12

15 13 14
7 11 14
-5 13 14

2 0 8
-3 -14 3
-13 -1 5

9 -1 -21
7 -4 -2
8 9 8

4 16 -6
6 10 17
16 16 -5

5 11 7
-13 -13 -2
-4 -18 -3

-10 -7 -14
-13 7 -2
0 -7 -16

-7 -16 0
-13 -2 1
-16 -17 -2

-21 -20 4
-1 -10 -19
4 10 3

-9 -9 -7
-8 -8 -9
-7 -10 -9

3 -30 -26
-3 -20 0
-4 -5 -2

-15 -13 10
-10 -13 -20
17 13 10

9 13 13
7 13 14
14 14 11

-11 7 -1
-3 -7 -16
-9 0 -8

1 13 6
12 14 6
3 6 6

7 -10 3
2 -9 5
4 -12 -20

14 15 15
9 14 14
-2 2 -2

-1 9 -1
-4 13 -12
-11 11 -16

-6 -1 -9
-9 3 5
-6 0 -12

-8 14 -1
-17 13 6
-14 11 -9

-8 -6 -12
-10 -8 -9
-2 3 7

9 9 9
11 8 11
10 13 15

7 8 12
15 9 5
8 9 0

-8 -13 -3
-9 -16 3
1 7 9

-15 -9 -11
-10 -6 -8
-11 -8 4

8 -14 -1
2 4 2
9 18 12

8 7 -7
8 5 4
7 14 -4

2 -10 -6
-12 -5 -6
20 3 15

-9 -12 -14
-15 -13 -15
2 -6 -8

-16 7 10
-16 3 13
9 6 14

-16 3 10
-15 -9 -1
0 1 8

5 10 9
-6 -9 3
-6 -12 -12

10 14 5
8 27 -7
-1 -2 2

-17 3 4
7 8 4
-7 -12 -14

-2 4 13
-13 1 8
-15 -5 9

10 -3 -8
5 1 2
0 -9 -18

-15 -12 -11
-9 -9 -10
-15 -10 -8

3 8 1
7 14 -4
-4 2 2

-13 -5 -4
-3 0 -4
6 -11 -8

-7 -3 1
-18 11 -2
-14 8 -3

-4 -10 9
11 -10 -12
11 7 -16

6 2 -23
0 -17 -13
-4 -11 0

-10 7 -21
5 1 3
5 -7 4

-14 -8 -6
13 14 23
8 12 -9

-7 10 -2
-19 -5 7
7 -16 5

-11 -8 -15
8 4 7
-14 -3 -11

2 10 8
13 8 13
13 10 9

13 -3 8
1 -16 2
3 1 -11

-1 18 -4
4 16 6
-18 -16 -5

6 -18 -9
-19 -7 3
12 15 1

10 -2 -7
-5 -10 -9
-4 -4 5

-12 -16 -9
10 1 -7
9 11 5

1 4 6
5 6 8
1 6 9

-3 -18 -7
14 -3 0
-8 12 3

-19 12 10
-13 9 -12
-5 5 -10

-6 -11 -12
14 12 16
-14 -13 10

0 27 18
11 20 6
-7 -13 -14

8 30 27
15 16 16
2 1 -10

-9 8 11
-4 -7 -12
-7 -8 13

-17 -14 -15
15 10 -17
11 8 13

0 6 0
12 14 11
9 8 9

-10 -3 -8
9 22 19
11 13 -15

8 13 -1
10 11 7
8 -2 15

4 -5 -1
-12 3 -13
5 -12 -6

-4 13 9
12 6 10
-3 5 6

14 12 12
14 12 3
13 5 0

7 8 15
14 17 19
16 18 12

3 -8 -11
9 0 -9
4 5 -15

8 15 16
13 10 14
15 10 15

23 10 1
13 11 -6
19 -2 9

-12 -12 -9
13 12 14
-3 -8 2

2 -5 2
4 -6 4
12 -6 -6

-1 -5 10
-4 -1 4
14 26 20

-18 6 -9
0 20 0
-4 16 -13

-3 -22 -8
5 2 -10
-11 -10 -6

17 16 16
12 12 10
8 6 13

-12 5 12
-8 -13 -18
11 12 13

-1 2 5
13 26 9
7 9 -6

5 17 13
3 1 7
-13 -21 -15

-6 3 6
-3 14 5
1 5 1

-12 -13 -15
15 1 -9
10 7 12

5 14 9
1 6 6
-23 -16 -8

5 6 -5
-14 -12 1
-3 1 11

-4 1 14
-4 5 15
-5 0 16

16 17 20
-5 15 14
-6 8 15

14 11 -3
13 -2 2
-13 -15 -18

4 -7 -9
9 13 8
7 -16 3

-6 -1 -14
9 2 7
-2 -15 -1

4 -12 -14
-11 12 -4
5 -13 2

9 -15 12
4 -10 -3
-10 -2 -6

-10 11 -5
0 5 -2
6 8 -15

13 4 -7
10 7 -19
9 -4 -13

5 9 3
11 20 13
8 12 3

0 -10 -24
9 22 0
-13 0 15

9 2 11
12 4 5
10 8 12

-14 -12 -16
5 12 -9
21 25 7

-2 3 8
-6 8 -10
-8 -17 -5

-18 0 -17
-12 -2 -1
-15 -13 -10

-1 -14 -5
-2 -8 10
12 9 -3

-13 -9 18
12 17 -12
-17 11 -15

-12 -14 -14
16 16 11
16 14 19

-14 -13 7
-11 -8 9
-9 6 13

-12 0 4
-16 0 7
-2 -13 5

-9 -10 -4
0 -9 11
1 -3 5

6 -1 -6
-15 -14 -12
-15 7 2

-13 5 9
-12 -3 -1
-1 1 -16

11 1 -2
15 15 7
4 -8 -12

-15 -5 -3
-11 15 -6
-4 9 12

0 -13 -8
4 6 2
9 5 -1

8 -1 8
9 -3 -19
-10 -2 -17

-2 -13 15
7 -1 5
-7 -13 6

1 -7 5
12 9 7
16 10 9

0 8 15
-15 1 13
-9 -15 4

9 4 -13
-7 8 -17
-15 -1 -9

-10 -8 -17
-17 6 -14
-5 -8 -8

16 15 12
15 14 10
10 9 10

-11 -9 10
10 -9 -2
-9 4 15

12 8 10
16 9 11
14 13 -2

-13 14 -12
-3 11 -11
9 16 -17

6 0 -2
-9 2 -4
3 -3 1

-4 -11 6
-5 -18 1
-6 1 16

1 -19 -8
1 -19 1
-7 -13 -3

10 -2 6
18 11 -4
11 -2 -6

-3 -19 -15
-7 -12 8
-2 -6 -9

-5 -15 -15
2 4 2
6 6 4

-10 -13 -11
-4 -3 -10
10 10 9

11 17 11
7 0 -6
-10 -16 -16

3 -4 -4
1 4 5
-12 4 -5

-15 -12 -18
11 2 11
-8 13 10

9 14 13
-23 -21 -21
6 7 5

-7 -5 9
-6 -1 -3
-4 -13 -22

8 14 16
17 13 15
21 14 17

-15 0 -6
-2 2 -15
6 6 1

6 3 16
-16 -17 9
-11 -18 12

9 -6 -11
-3 -9 -3
14 -10 -4

-11 2 -9
-11 0 4
-4 2 -3

12 10 12
-1 14 19
10 9 14

-18 -18 -15
-3 5 9
12 7 4

-10 -13 9
10 10 4
-14 -1 -15

2 10 10
10 8 6
10 11 11

12 -2 12
7 0 18
17 -4 -2

-13 -8 -13
-12 -7 -11
-16 -10 -14

-14 8 -13
-11 12 -11
-9 12 11

14 -4 4
-10 7 -7
-10 7 -7

8 0 -5
3 -2 -15
1 2 -12

-1 0 0
2 -4 3
0 4 -4

17 -14 1
13 -1 7
10 5 -10

12 11 -5
-13 7 8
-25 -12 -9

-13 -1 -4
-6 0 -1
-7 16 14

5 14 8
11 7 15
2 10 -1

3 -1 -3
-11 -1 5
6 3 6

5 8 12
4 4 -6
-16 -17 -16

12 11 8
7 5 15
8 2 17

8 17 17
4 17 10
7 7 5

-11 -13 -3
0 -2 -10
3 5 7

-2 2 4
-25 -2 1
-3 2 9

12 11 -2
6 6 -12
2 -4 -20

17 -9 -13
17 -8 -12
13 8 13

-6 4 -14
11 10 14
5 -7 -11

4 10 1
-6 11 -11
6 -13 -20

-8 1 -5
-8 8 -9
10 -10 6

-16 -13 -5
-14 -3 1
3 -11 -2

-9 -5 -7
-9 -5 -11
-10 -10 -2

16 17 20
-11 -10 -9
-13 14 19

0 -7 6
-16 -5 -13
-7 -8 -12

4 11 4
10 5 7
4 8 -2

12 5 -9
1 10 -5
11 2 -1

5 15 13
-2 -7 -5
-2 -3 8

-18 -17 0
6 -13 2
-2 -9 -10

15 -2 -13
2 -10 -6
-8 5 11

-12 7 -16
7 17 6
4 -13 -10

5 -16 -17
-14 6 10
7 7 7

-22 -1 -25
-8 5 -5
-10 -7 -22

-3 -10 -10
-14 -9 -2
-14 -11 -11

23 3 -7
11 8 -1
-7 -5 -13

-17 9 12
-20 -4 6
-19 -9 14

8 -8 5
-1 -1 -13
-12 1 8

-12 -9 -11
-8 -12 -6
-8 -10 -10

9 10 8
1 5 -4
15 -6 -9

3 -12 -8
4 -6 -3
-4 12 8

-3 7 17
-10 15 -6
8 21 5

13 7 17
16 11 12
9 5 14

-11 3 1
-15 -1 -9
5 8 -6

13 6 7
10 -2 -9
16 -5 -17

-10 -9 -9
-12 -4 -11
-8 -8 -4

-11 -1 11
-11 -3 -2
-12 -12 6

-1 9 0
7 -7 -3
-18 3 -9

-1 22 5
9 20 -2
8 11 -9

15 6 -6
13 -13 -13
0 -15 -16

-2 -16 -3
2 -14 -7
12 4 2

12 3 -7
8 -7 -17
7 -10 -7

-10 4 -2
-8 7 -12
5 3 10

2 -2 7
-8 -15 7
9 4 -6

-9 2 -5
9 -12 -15
0 13 8

-7 4 0
17 19 19
8 8 -6

-6 7 -1
3 -2 -7
5 7 11

-9 -22 -10
-4 7 4
11 9 6

4 14 0
-7 8 14
-18 -4 11

-14 1 1
-16 -15 -9
-18 -8 -17

15 -7 -8
10 5 -8
1 13 -21

-18 0 10
-14 9 9
-5 6 12

2 3 12
-16 -15 0
2 -6 -8

12 7 3
12 3 13
-6 11 2

10 -14 16
10 -16 14
-6 -7 -15

7 12 6
-1 9 0
13 13 10

-19 3 10
-19 -7 9
-9 -4 21

7 -8 0
22 2 -1
14 -14 -18

-6 -16 -18
-5 -4 -16
-1 -10 -9

-21 6 -10
-13 5 -3
6 6 -7

20 14 9
13 15 20
12 11 11


